digraph Tree {
node [shape=box, style="filled, rounded", color="black", fontname=helvetica] ;
edge [fontname=helvetica] ;
0 [label="rectal_temp <= 37.25\ngini = 0.46\nsamples = 138\nvalue = [84, 155]\nclass = Lived", fillcolor="#399de575"] ;
1 [label="respiratory_rate <= 22.0\ngini = 0.23\nsamples = 11\nvalue = [13, 2]\nclass = Died", fillcolor="#e58139d8"] ;
0 -> 1 [labeldistance=2.5, labelangle=45, headlabel="True"] ;
2 [label="gini = 0.48\nsamples = 3\nvalue = [3, 2]\nclass = Died", fillcolor="#e5813955"] ;
1 -> 2 ;
3 [label="gini = 0.0\nsamples = 8\nvalue = [10, 0]\nclass = Died", fillcolor="#e58139ff"] ;
1 -> 3 ;
4 [label="abdominal_distention_none <= 0.5\ngini = 0.43\nsamples = 127\nvalue = [71, 153]\nclass = Lived", fillcolor="#399de589"] ;
0 -> 4 [labeldistance=2.5, labelangle=-45, headlabel="False"] ;
5 [label="total_protein <= 6.05\ngini = 0.47\nsamples = 96\nvalue = [65, 105]\nclass = Lived", fillcolor="#399de561"] ;
4 -> 5 ;
6 [label="packed_cell_volume <= 40.5\ngini = 0.41\nsamples = 13\nvalue = [15, 6]\nclass = Died", fillcolor="#e5813999"] ;
5 -> 6 ;
7 [label="gini = 0.5\nsamples = 6\nvalue = [5, 6]\nclass = Lived", fillcolor="#399de52a"] ;
6 -> 7 ;
8 [label="gini = 0.0\nsamples = 7\nvalue = [10, 0]\nclass = Died", fillcolor="#e58139ff"] ;
6 -> 8 ;
9 [label="peristalsis_hypermotile <= 0.5\ngini = 0.45\nsamples = 83\nvalue = [50, 99]\nclass = Lived", fillcolor="#399de57e"] ;
5 -> 9 ;
10 [label="gini = 0.47\nsamples = 76\nvalue = [50, 84]\nclass = Lived", fillcolor="#399de567"] ;
9 -> 10 ;
11 [label="gini = 0.0\nsamples = 7\nvalue = [0, 15]\nclass = Lived", fillcolor="#399de5ff"] ;
9 -> 11 ;
12 [label="packed_cell_volume <= 49.5\ngini = 0.2\nsamples = 31\nvalue = [6, 48]\nclass = Lived", fillcolor="#399de5df"] ;
4 -> 12 ;
13 [label="pulse <= 65.0\ngini = 0.05\nsamples = 25\nvalue = [1, 40]\nclass = Lived", fillcolor="#399de5f9"] ;
12 -> 13 ;
14 [label="gini = 0.0\nsamples = 21\nvalue = [0, 36]\nclass = Lived", fillcolor="#399de5ff"] ;
13 -> 14 ;
15 [label="gini = 0.32\nsamples = 4\nvalue = [1, 4]\nclass = Lived", fillcolor="#399de5bf"] ;
13 -> 15 ;
16 [label="rectal_temp <= 38.23\ngini = 0.47\nsamples = 6\nvalue = [5, 8]\nclass = Lived", fillcolor="#399de560"] ;
12 -> 16 ;
17 [label="gini = 0.2\nsamples = 3\nvalue = [1, 8]\nclass = Lived", fillcolor="#399de5df"] ;
16 -> 17 ;
18 [label="gini = 0.0\nsamples = 3\nvalue = [4, 0]\nclass = Died", fillcolor="#e58139ff"] ;
16 -> 18 ;
}