digraph Tree {
node [shape=box, style="filled, rounded", color="black", fontname=helvetica] ;
edge [fontname=helvetica] ;
0 [label="rectal_exam_feces_normal <= 0.5\ngini = 0.42\nsamples = 138\nvalue = [73, 166]\nclass = Surgical", fillcolor="#399de58f"] ;
1 [label="peristalsis_absent <= 0.5\ngini = 0.34\nsamples = 109\nvalue = [41, 148]\nclass = Surgical", fillcolor="#399de5b8"] ;
0 -> 1 [labeldistance=2.5, labelangle=45, headlabel="True"] ;
2 [label="pulse <= 58.0\ngini = 0.38\nsamples = 77\nvalue = [35, 100]\nclass = Surgical", fillcolor="#399de5a6"] ;
1 -> 2 ;
3 [label="total_protein <= 6.9\ngini = 0.5\nsamples = 25\nvalue = [22, 21]\nclass = Medical", fillcolor="#e581390c"] ;
2 -> 3 ;
4 [label="gini = 0.28\nsamples = 8\nvalue = [10, 2]\nclass = Medical", fillcolor="#e58139cc"] ;
3 -> 4 ;
5 [label="gini = 0.47\nsamples = 17\nvalue = [12, 19]\nclass = Surgical", fillcolor="#399de55e"] ;
3 -> 5 ;
6 [label="abdominal_distention_severe <= 0.5\ngini = 0.24\nsamples = 52\nvalue = [13, 79]\nclass = Surgical", fillcolor="#399de5d5"] ;
2 -> 6 ;
7 [label="gini = 0.26\nsamples = 48\nvalue = [13, 70]\nclass = Surgical", fillcolor="#399de5d0"] ;
6 -> 7 ;
8 [label="gini = 0.0\nsamples = 4\nvalue = [0, 9]\nclass = Surgical", fillcolor="#399de5ff"] ;
6 -> 8 ;
9 [label="abdominal_distention_slight <= 0.5\ngini = 0.2\nsamples = 32\nvalue = [6, 48]\nclass = Surgical", fillcolor="#399de5df"] ;
1 -> 9 ;
10 [label="packed_cell_volume <= 45.5\ngini = 0.14\nsamples = 26\nvalue = [3, 37]\nclass = Surgical", fillcolor="#399de5ea"] ;
9 -> 10 ;
11 [label="gini = 0.38\nsamples = 5\nvalue = [2, 6]\nclass = Surgical", fillcolor="#399de5aa"] ;
10 -> 11 ;
12 [label="gini = 0.06\nsamples = 21\nvalue = [1, 31]\nclass = Surgical", fillcolor="#399de5f7"] ;
10 -> 12 ;
13 [label="rectal_temp <= 38.6\ngini = 0.34\nsamples = 6\nvalue = [3, 11]\nclass = Surgical", fillcolor="#399de5b9"] ;
9 -> 13 ;
14 [label="gini = 0.42\nsamples = 3\nvalue = [3, 7]\nclass = Surgical", fillcolor="#399de592"] ;
13 -> 14 ;
15 [label="gini = 0.0\nsamples = 3\nvalue = [0, 4]\nclass = Surgical", fillcolor="#399de5ff"] ;
13 -> 15 ;
16 [label="peristalsis_hypermotile <= 0.5\ngini = 0.46\nsamples = 29\nvalue = [32, 18]\nclass = Medical", fillcolor="#e5813970"] ;
0 -> 16 [labeldistance=2.5, labelangle=-45, headlabel="False"] ;
17 [label="nasogastric_tube_slight <= 0.5\ngini = 0.46\nsamples = 17\nvalue = [10, 18]\nclass = Surgical", fillcolor="#399de571"] ;
16 -> 17 ;
18 [label="rectal_temp <= 38.45\ngini = 0.5\nsamples = 10\nvalue = [8, 7]\nclass = Medical", fillcolor="#e5813920"] ;
17 -> 18 ;
19 [label="gini = 0.46\nsamples = 7\nvalue = [7, 4]\nclass = Medical", fillcolor="#e581396d"] ;
18 -> 19 ;
20 [label="gini = 0.38\nsamples = 3\nvalue = [1, 3]\nclass = Surgical", fillcolor="#399de5aa"] ;
18 -> 20 ;
21 [label="temp_of_extremities_cool <= 0.5\ngini = 0.26\nsamples = 7\nvalue = [2, 11]\nclass = Surgical", fillcolor="#399de5d1"] ;
17 -> 21 ;
22 [label="gini = 0.48\nsamples = 3\nvalue = [2, 3]\nclass = Surgical", fillcolor="#399de555"] ;
21 -> 22 ;
23 [label="gini = 0.0\nsamples = 4\nvalue = [0, 8]\nclass = Surgical", fillcolor="#399de5ff"] ;
21 -> 23 ;
24 [label="gini = 0.0\nsamples = 12\nvalue = [22, 0]\nclass = Medical", fillcolor="#e58139ff"] ;
16 -> 24 ;
}